FANN_FLO_2.1
num_layers=3
learning_rate=0.300000
connection_rate=1.000000
network_type=0
learning_momentum=0.200000
training_algorithm=2
train_error_function=1
train_stop_function=0
cascade_output_change_fraction=0.010000
quickprop_decay=-0.000100
quickprop_mu=1.750000
rprop_increase_factor=1.200000
rprop_decrease_factor=0.500000
rprop_delta_min=0.000000
rprop_delta_max=50.000000
rprop_delta_zero=0.100000
cascade_output_stagnation_epochs=12
cascade_candidate_change_fraction=0.010000
cascade_candidate_stagnation_epochs=12
cascade_max_out_epochs=150
cascade_max_cand_epochs=150
cascade_num_candidate_groups=2
bit_fail_limit=3.49999994039535522461e-01
cascade_candidate_limit=1.00000000000000000000e+03
cascade_weight_multiplier=4.00000005960464477539e-01
cascade_activation_functions_count=10
cascade_activation_functions=3 5 7 8 10 11 14 15 16 17 
cascade_activation_steepnesses_count=4
cascade_activation_steepnesses=2.50000000000000000000e-01 5.00000000000000000000e-01 7.50000000000000000000e-01 1.00000000000000000000e+00 
layer_sizes=6 5 4 
scale_included=0
neurons (num_inputs, activation_function, activation_steepness)=(0, 0, 0.00000000000000000000e+00) (0, 0, 0.00000000000000000000e+00) (0, 0, 0.00000000000000000000e+00) (0, 0, 0.00000000000000000000e+00) (0, 0, 0.00000000000000000000e+00) (0, 0, 0.00000000000000000000e+00) (6, 3, 5.00000000000000000000e-01) (6, 3, 5.00000000000000000000e-01) (6, 3, 5.00000000000000000000e-01) (6, 3, 5.00000000000000000000e-01) (0, 3, 0.00000000000000000000e+00) (5, 0, 5.00000000000000000000e-01) (5, 0, 5.00000000000000000000e-01) (5, 0, 5.00000000000000000000e-01) (0, 0, 0.00000000000000000000e+00) 
connections (connected_to_neuron, weight)=(0, 3.30683737993240356445e-01) (1, 7.56719589233398437500e+00) (2, -1.24076747894287109375e+00) (3, 1.82658255100250244141e+00) (4, -3.13293480873107910156e+00) (5, -6.40992498397827148438e+00) (0, 8.14489078521728515625e+00) (1, 2.78257966041564941406e+00) (2, -5.84300994873046875000e+00) (3, -4.26272163391113281250e+01) (4, 8.81202507019042968750e+00) (5, 2.75688815116882324219e+00) (0, 3.86541150510311126709e-02) (1, 1.98351836204528808594e+00) (2, -3.28231453895568847656e+00) (3, 1.39195070266723632812e+01) (4, 5.72562408447265625000e+00) (5, -6.51456737518310546875e+00) (0, -3.24061393737792968750e+00) (1, 5.27772140502929687500e+00) (2, -1.83060526847839355469e+00) (3, 5.38215732574462890625e+00) (4, -1.26719319820404052734e+00) (5, -1.05786550045013427734e+00) (6, -2.95890092849731445312e+00) (7, -1.36702013015747070312e+00) (8, -1.39523804187774658203e+00) (9, 2.80863738059997558594e+00) (10, 1.33744668960571289062e+00) (6, 2.71361517906188964844e+00) (7, 1.50583243370056152344e+00) (8, 1.35728001594543457031e+00) (9, -2.48204660415649414062e+00) (10, 4.76322084665298461914e-01) (6, 3.55348408222198486328e-01) (7, -2.29778975248336791992e-01) (8, 2.24775373935699462891e-02) (9, -4.54727202653884887695e-01) (10, 2.91134983301162719727e-01) 
